<?xml version="1.0"?>
<opencv_storage>
<cascade>
  <stageType>BOOST</stageType>
  <featureType>HAAR</featureType>
  <height>24</height>
  <width>24</width>
  <stageParams>
    <boostType>GAB</boostType>
    <minHitRate>9.4999998807907104e-01</minHitRate>
    <maxFalseAlarm>5.0000000000000000e-01</maxFalseAlarm>
    <weightTrimRate>9.4999999999999996e-01</weightTrimRate>
    <maxDepth>1</maxDepth>
    <maxWeakCount>100</maxWeakCount></stageParams>
  <featureParams>
    <maxCatCount>0</maxCatCount>
    <featSize>1</featSize>
    <mode>BASIC</mode></featureParams>
  <stageNum>4</stageNum>
  <stages>
    <!-- stage 0 -->
    <_>
      <maxWeakCount>2</maxWeakCount>
      <stageThreshold>-8.0380864441394806e-02</stageThreshold>
      <weakClassifiers>
        <_>
          <internalNodes>
            0 -1 3 -1.3365764170885086e-03</internalNodes>
          <leafValues>
            7.5257730484008789e-01 -9.0196079015731812e-01</leafValues></_>
        <_>
          <internalNodes>
            0 -1 2 5.2873850800096989e-03</internalNodes>
          <leafValues>
            -7.1308720111846924e-01 8.2157993316650391e-01</leafValues></_></weakClassifiers></_>
    <!-- stage 1 -->
    <_>
      <maxWeakCount>3</maxWeakCount>
      <stageThreshold>-1.0069999694824219e+00</stageThreshold>
      <weakClassifiers>
        <_>
          <internalNodes>
            0 -1 4 3.7956647574901581e-02</internalNodes>
          <leafValues>
            -8.3229815959930420e-01 8.0246913433074951e-01</leafValues></_>
        <_>
          <internalNodes>
            0 -1 5 -3.6243707872927189e-03</internalNodes>
          <leafValues>
            7.5541055202484131e-01 -6.5245687961578369e-01</leafValues></_>
        <_>
          <internalNodes>
            0 -1 1 1.9352312665432692e-04</internalNodes>
          <leafValues>
            4.7775498032569885e-01 -1.</leafValues></_></weakClassifiers></_>
    <!-- stage 2 -->
    <_>
      <maxWeakCount>1</maxWeakCount>
      <stageThreshold>7.5438594818115234e-01</stageThreshold>
      <weakClassifiers>
        <_>
          <internalNodes>
            0 -1 1 -5.3438998293131590e-05</internalNodes>
          <leafValues>
            -1. 7.5438594818115234e-01</leafValues></_></weakClassifiers></_>
    <!-- stage 3 -->
    <_>
      <maxWeakCount>1</maxWeakCount>
      <stageThreshold>6.4406782388687134e-01</stageThreshold>
      <weakClassifiers>
        <_>
          <internalNodes>
            0 -1 0 6.0920950025320053e-02</internalNodes>
          <leafValues>
            6.4406782388687134e-01 -9.7894734144210815e-01</leafValues></_></weakClassifiers></_></stages>
  <features>
    <_>
      <rects>
        <_>
          0 0 22 4 -1.</_>
        <_>
          11 0 11 4 2.</_></rects>
      <tilted>0</tilted></_>
    <_>
      <rects>
        <_>
          2 1 4 20 -1.</_>
        <_>
          2 11 4 10 2.</_></rects>
      <tilted>0</tilted></_>
    <_>
      <rects>
        <_>
          5 0 8 1 -1.</_>
        <_>
          9 0 4 1 2.</_></rects>
      <tilted>0</tilted></_>
    <_>
      <rects>
        <_>
          12 0 3 2 -1.</_>
        <_>
          12 1 3 1 2.</_></rects>
      <tilted>0</tilted></_>
    <_>
      <rects>
        <_>
          12 4 6 9 -1.</_>
        <_>
          14 4 2 9 3.</_></rects>
      <tilted>0</tilted></_>
    <_>
      <rects>
        <_>
          14 23 4 1 -1.</_>
        <_>
          16 23 2 1 2.</_></rects>
      <tilted>0</tilted></_></features></cascade>
</opencv_storage>
