<?xml version="1.0"?>
<opencv_storage>
<cascade>
  <stageType>BOOST</stageType>
  <featureType>HAAR</featureType>
  <height>24</height>
  <width>24</width>
  <stageParams>
    <boostType>GAB</boostType>
    <minHitRate>9.4999998807907104e-01</minHitRate>
    <maxFalseAlarm>5.0000000000000000e-01</maxFalseAlarm>
    <weightTrimRate>9.4999999999999996e-01</weightTrimRate>
    <maxDepth>1</maxDepth>
    <maxWeakCount>100</maxWeakCount></stageParams>
  <featureParams>
    <maxCatCount>0</maxCatCount>
    <featSize>1</featSize>
    <mode>BASIC</mode></featureParams>
  <stageNum>10</stageNum>
  <stages>
    <!-- stage 0 -->
    <_>
      <maxWeakCount>4</maxWeakCount>
      <stageThreshold>-4.6086871623992920e-01</stageThreshold>
      <weakClassifiers>
        <_>
          <internalNodes>
            0 -1 7 4.1344724595546722e-02</internalNodes>
          <leafValues>
            -4.8882520198822021e-01 9.6899223327636719e-01</leafValues></_>
        <_>
          <internalNodes>
            0 -1 22 5.8148882817476988e-04</internalNodes>
          <leafValues>
            -3.7796652317047119e-01 5.4614341259002686e-01</leafValues></_>
        <_>
          <internalNodes>
            0 -1 0 -2.2258260287344456e-05</internalNodes>
          <leafValues>
            -8.6524593830108643e-01 2.0242330431938171e-01</leafValues></_>
        <_>
          <internalNodes>
            0 -1 33 9.8189004347659647e-05</internalNodes>
          <leafValues>
            2.0349971950054169e-01 -9.2476958036422729e-01</leafValues></_></weakClassifiers></_>
    <!-- stage 1 -->
    <_>
      <maxWeakCount>3</maxWeakCount>
      <stageThreshold>-1.2999148666858673e-01</stageThreshold>
      <weakClassifiers>
        <_>
          <internalNodes>
            0 -1 20 -3.6832208279520273e-03</internalNodes>
          <leafValues>
            7.6694917678833008e-01 -6.3030695915222168e-01</leafValues></_>
        <_>
          <internalNodes>
            0 -1 6 -2.3634220659732819e-01</internalNodes>
          <leafValues>
            -9.5366311073303223e-01 2.9620301723480225e-01</leafValues></_>
        <_>
          <internalNodes>
            0 -1 2 2.5778970122337341e-01</internalNodes>
          <leafValues>
            2.0411247014999390e-01 -9.6473020315170288e-01</leafValues></_></weakClassifiers></_>
    <!-- stage 2 -->
    <_>
      <maxWeakCount>3</maxWeakCount>
      <stageThreshold>-7.8365737199783325e-01</stageThreshold>
      <weakClassifiers>
        <_>
          <internalNodes>
            0 -1 19 -5.0511071458458900e-04</internalNodes>
          <leafValues>
            5.5414015054702759e-01 -6.9163638353347778e-01</leafValues></_>
        <_>
          <internalNodes>
            0 -1 27 4.8130415380001068e-03</internalNodes>
          <leafValues>
            -4.9964895844459534e-01 6.1061364412307739e-01</leafValues></_>
        <_>
          <internalNodes>
            0 -1 16 2.4523858446627855e-03</internalNodes>
          <leafValues>
            -4.9037060141563416e-01 4.0762796998023987e-01</leafValues></_></weakClassifiers></_>
    <!-- stage 3 -->
    <_>
      <maxWeakCount>2</maxWeakCount>
      <stageThreshold>-3.0042624473571777e-01</stageThreshold>
      <weakClassifiers>
        <_>
          <internalNodes>
            0 -1 32 -1.2953410077898297e-05</internalNodes>
          <leafValues>
            -8.3697813749313354e-01 2.3971915245056152e-01</leafValues></_>
        <_>
          <internalNodes>
            0 -1 22 9.9680351559072733e-04</internalNodes>
          <leafValues>
            -5.2342665195465088e-01 5.3655189275741577e-01</leafValues></_></weakClassifiers></_>
    <!-- stage 4 -->
    <_>
      <maxWeakCount>2</maxWeakCount>
      <stageThreshold>-1.9112379848957062e-01</stageThreshold>
      <weakClassifiers>
        <_>
          <internalNodes>
            0 -1 9 3.1974911689758301e-02</internalNodes>
          <leafValues>
            -5.1061320304870605e-01 8.5667753219604492e-01</leafValues></_>
        <_>
          <internalNodes>
            0 -1 1 2.3654636740684509e-01</internalNodes>
          <leafValues>
            3.1948941946029663e-01 -9.2191392183303833e-01</leafValues></_></weakClassifiers></_>
    <!-- stage 5 -->
    <_>
      <maxWeakCount>4</maxWeakCount>
      <stageThreshold>-5.0408124923706055e-01</stageThreshold>
      <weakClassifiers>
        <_>
          <internalNodes>
            0 -1 13 1.5087518095970154e-01</internalNodes>
          <leafValues>
            -4.9854567646980286e-01 8.9436620473861694e-01</leafValues></_>
        <_>
          <internalNodes>
            0 -1 23 3.8676493568345904e-04</internalNodes>
          <leafValues>
            -3.5448294878005981e-01 5.7877147197723389e-01</leafValues></_>
        <_>
          <internalNodes>
            0 -1 10 -9.4144896138459444e-05</internalNodes>
          <leafValues>
            -7.3879307508468628e-01 3.0363965034484863e-01</leafValues></_>
        <_>
          <internalNodes>
            0 -1 3 -2.9597094655036926e-01</internalNodes>
          <leafValues>
            -9.9360942840576172e-01 1.5448601543903351e-01</leafValues></_></weakClassifiers></_>
    <!-- stage 6 -->
    <_>
      <maxWeakCount>4</maxWeakCount>
      <stageThreshold>-4.4866734743118286e-01</stageThreshold>
      <weakClassifiers>
        <_>
          <internalNodes>
            0 -1 8 4.6704921871423721e-02</internalNodes>
          <leafValues>
            -4.9558043479919434e-01 7.7777779102325439e-01</leafValues></_>
        <_>
          <internalNodes>
            0 -1 34 -1.4175912838254590e-05</internalNodes>
          <leafValues>
            -7.7494412660598755e-01 1.8833231925964355e-01</leafValues></_>
        <_>
          <internalNodes>
            0 -1 0 1.4101515262154862e-05</internalNodes>
          <leafValues>
            2.2628477215766907e-01 -6.0881316661834717e-01</leafValues></_>
        <_>
          <internalNodes>
            0 -1 11 -1.9713002257049084e-03</internalNodes>
          <leafValues>
            5.1955574750900269e-01 -3.6770400404930115e-01</leafValues></_></weakClassifiers></_>
    <!-- stage 7 -->
    <_>
      <maxWeakCount>4</maxWeakCount>
      <stageThreshold>-6.5635818243026733e-01</stageThreshold>
      <weakClassifiers>
        <_>
          <internalNodes>
            0 -1 17 5.2646636031568050e-03</internalNodes>
          <leafValues>
            -5.3893697261810303e-01 6.9870132207870483e-01</leafValues></_>
        <_>
          <internalNodes>
            0 -1 4 1.5320992679335177e-04</internalNodes>
          <leafValues>
            1.9061614573001862e-01 -7.9214215278625488e-01</leafValues></_>
        <_>
          <internalNodes>
            0 -1 25 1.2920776498503983e-04</internalNodes>
          <leafValues>
            -4.1414779424667358e-01 3.4814724326133728e-01</leafValues></_>
        <_>
          <internalNodes>
            0 -1 14 8.8077352847903967e-04</internalNodes>
          <leafValues>
            -4.3590924143791199e-01 3.2657369971275330e-01</leafValues></_></weakClassifiers></_>
    <!-- stage 8 -->
    <_>
      <maxWeakCount>5</maxWeakCount>
      <stageThreshold>-9.2291593551635742e-01</stageThreshold>
      <weakClassifiers>
        <_>
          <internalNodes>
            0 -1 26 4.0690023452043533e-03</internalNodes>
          <leafValues>
            -8.1642514467239380e-01 6.2127660959959030e-02</leafValues></_>
        <_>
          <internalNodes>
            0 -1 29 -3.0560847371816635e-03</internalNodes>
          <leafValues>
            5.6500899791717529e-01 -3.3874419331550598e-01</leafValues></_>
        <_>
          <internalNodes>
            0 -1 28 2.3037307983031496e-05</internalNodes>
          <leafValues>
            -3.7377640604972839e-01 3.4691119194030762e-01</leafValues></_>
        <_>
          <internalNodes>
            0 -1 5 -9.1643787527573295e-06</internalNodes>
          <leafValues>
            -6.7004311084747314e-01 1.7463889718055725e-01</leafValues></_>
        <_>
          <internalNodes>
            0 -1 18 -1.0273167572449893e-04</internalNodes>
          <leafValues>
            3.9391216635704041e-01 -3.2316747307777405e-01</leafValues></_></weakClassifiers></_>
    <!-- stage 9 -->
    <_>
      <maxWeakCount>6</maxWeakCount>
      <stageThreshold>-7.9642927646636963e-01</stageThreshold>
      <weakClassifiers>
        <_>
          <internalNodes>
            0 -1 12 8.5440315306186676e-03</internalNodes>
          <leafValues>
            -5.0361448526382446e-01 6.7930030822753906e-01</leafValues></_>
        <_>
          <internalNodes>
            0 -1 21 5.1118142437189817e-04</internalNodes>
          <leafValues>
            -3.9652231335639954e-01 3.6620050668716431e-01</leafValues></_>
        <_>
          <internalNodes>
            0 -1 31 -3.5135184589307755e-05</internalNodes>
          <leafValues>
            -7.7628016471862793e-01 1.2419509142637253e-01</leafValues></_>
        <_>
          <internalNodes>
            0 -1 15 -9.3360449682222679e-06</internalNodes>
          <leafValues>
            -5.6376022100448608e-01 2.3071484267711639e-01</leafValues></_>
        <_>
          <internalNodes>
            0 -1 24 2.0096813386771828e-05</internalNodes>
          <leafValues>
            -3.1358161568641663e-01 3.2828730344772339e-01</leafValues></_>
        <_>
          <internalNodes>
            0 -1 30 5.0750877708196640e-03</internalNodes>
          <leafValues>
            9.4131372869014740e-02 -8.4141713380813599e-01</leafValues></_></weakClassifiers></_></stages>
  <features>
    <_>
      <rects>
        <_>
          0 0 6 2 -1.</_>
        <_>
          3 0 3 2 2.</_></rects>
      <tilted>0</tilted></_>
    <_>
      <rects>
        <_>
          0 0 24 24 -1.</_>
        <_>
          12 0 12 24 2.</_></rects>
      <tilted>0</tilted></_>
    <_>
      <rects>
        <_>
          0 0 24 24 -1.</_>
        <_>
          0 12 24 12 2.</_></rects>
      <tilted>0</tilted></_>
    <_>
      <rects>
        <_>
          0 1 24 23 -1.</_>
        <_>
          12 1 12 23 2.</_></rects>
      <tilted>0</tilted></_>
    <_>
      <rects>
        <_>
          0 16 5 8 -1.</_>
        <_>
          0 20 5 4 2.</_></rects>
      <tilted>0</tilted></_>
    <_>
      <rects>
        <_>
          0 21 6 3 -1.</_>
        <_>
          2 21 2 3 3.</_></rects>
      <tilted>0</tilted></_>
    <_>
      <rects>
        <_>
          1 0 23 24 -1.</_>
        <_>
          1 12 23 12 2.</_></rects>
      <tilted>0</tilted></_>
    <_>
      <rects>
        <_>
          1 13 21 1 -1.</_>
        <_>
          8 13 7 1 3.</_></rects>
      <tilted>0</tilted></_>
    <_>
      <rects>
        <_>
          2 11 21 1 -1.</_>
        <_>
          9 11 7 1 3.</_></rects>
      <tilted>0</tilted></_>
    <_>
      <rects>
        <_>
          3 11 18 1 -1.</_>
        <_>
          9 11 6 1 3.</_></rects>
      <tilted>0</tilted></_>
    <_>
      <rects>
        <_>
          4 0 3 6 -1.</_>
        <_>
          4 3 3 3 2.</_></rects>
      <tilted>0</tilted></_>
    <_>
      <rects>
        <_>
          4 11 10 1 -1.</_>
        <_>
          9 11 5 1 2.</_></rects>
      <tilted>0</tilted></_>
    <_>
      <rects>
        <_>
          5 0 6 1 -1.</_>
        <_>
          8 0 3 1 2.</_></rects>
      <tilted>0</tilted></_>
    <_>
      <rects>
        <_>
          5 0 6 24 -1.</_>
        <_>
          8 0 3 24 2.</_></rects>
      <tilted>0</tilted></_>
    <_>
      <rects>
        <_>
          5 4 12 20 -1.</_>
        <_>
          9 4 4 20 3.</_></rects>
      <tilted>0</tilted></_>
    <_>
      <rects>
        <_>
          5 9 2 6 -1.</_>
        <_>
          5 11 2 2 3.</_></rects>
      <tilted>0</tilted></_>
    <_>
      <rects>
        <_>
          6 3 12 18 -1.</_>
        <_>
          10 3 4 18 3.</_></rects>
      <tilted>0</tilted></_>
    <_>
      <rects>
        <_>
          6 5 4 2 -1.</_>
        <_>
          8 5 2 2 2.</_></rects>
      <tilted>0</tilted></_>
    <_>
      <rects>
        <_>
          9 11 2 2 -1.</_>
        <_>
          10 11 1 2 2.</_></rects>
      <tilted>0</tilted></_>
    <_>
      <rects>
        <_>
          9 11 4 1 -1.</_>
        <_>
          11 11 2 1 2.</_></rects>
      <tilted>0</tilted></_>
    <_>
      <rects>
        <_>
          9 11 6 2 -1.</_>
        <_>
          11 11 2 2 3.</_></rects>
      <tilted>0</tilted></_>
    <_>
      <rects>
        <_>
          11 11 1 6 -1.</_>
        <_>
          11 13 1 2 3.</_></rects>
      <tilted>0</tilted></_>
    <_>
      <rects>
        <_>
          11 11 4 1 -1.</_>
        <_>
          13 11 2 1 2.</_></rects>
      <tilted>0</tilted></_>
    <_>
      <rects>
        <_>
          11 12 2 2 -1.</_>
        <_>
          11 13 2 1 2.</_></rects>
      <tilted>0</tilted></_>
    <_>
      <rects>
        <_>
          12 8 2 3 -1.</_>
        <_>
          12 9 2 1 3.</_></rects>
      <tilted>0</tilted></_>
    <_>
      <rects>
        <_>
          12 11 2 2 -1.</_>
        <_>
          13 11 1 2 2.</_></rects>
      <tilted>0</tilted></_>
    <_>
      <rects>
        <_>
          13 0 7 24 -1.</_>
        <_>
          13 8 7 8 3.</_></rects>
      <tilted>0</tilted></_>
    <_>
      <rects>
        <_>
          13 1 1 21 -1.</_>
        <_>
          13 8 1 7 3.</_></rects>
      <tilted>0</tilted></_>
    <_>
      <rects>
        <_>
          13 11 2 9 -1.</_>
        <_>
          13 14 2 3 3.</_></rects>
      <tilted>0</tilted></_>
    <_>
      <rects>
        <_>
          14 23 6 1 -1.</_>
        <_>
          17 23 3 1 2.</_></rects>
      <tilted>0</tilted></_>
    <_>
      <rects>
        <_>
          16 0 3 15 -1.</_>
        <_>
          17 0 1 15 3.</_></rects>
      <tilted>0</tilted></_>
    <_>
      <rects>
        <_>
          17 20 3 3 -1.</_>
        <_>
          18 20 1 3 3.</_></rects>
      <tilted>0</tilted></_>
    <_>
      <rects>
        <_>
          18 22 6 2 -1.</_>
        <_>
          21 22 3 2 2.</_></rects>
      <tilted>0</tilted></_>
    <_>
      <rects>
        <_>
          18 23 6 1 -1.</_>
        <_>
          21 23 3 1 2.</_></rects>
      <tilted>0</tilted></_>
    <_>
      <rects>
        <_>
          23 0 1 8 -1.</_>
        <_>
          23 4 1 4 2.</_></rects>
      <tilted>0</tilted></_></features></cascade>
</opencv_storage>
